digraph Tree {
node [shape=box] ;
0 [label="X[0] <= -0.178\nmse = 1513.362\nsamples = 57\nvalue = -10.503"] ;
1 [label="X[0] <= -1.005\nmse = 381.079\nsamples = 29\nvalue = -39.3"] ;
0 -> 1 [labeldistance=2.5, labelangle=45, headlabel="True"] ;
2 [label="X[0] <= -2.118\nmse = 248.269\nsamples = 11\nvalue = -58.229"] ;
1 -> 2 ;
3 [label="mse = 0.0\nsamples = 1\nvalue = -100.226"] ;
2 -> 3 ;
4 [label="X[0] <= -1.253\nmse = 58.105\nsamples = 10\nvalue = -53.562"] ;
2 -> 4 ;
5 [label="X[0] <= -1.539\nmse = 24.035\nsamples = 6\nvalue = -58.734"] ;
4 -> 5 ;
6 [label="X[0] <= -1.693\nmse = 5.226\nsamples = 2\nvalue = -68.208"] ;
5 -> 6 ;
7 [label="mse = 0.0\nsamples = 1\nvalue = -70.494"] ;
6 -> 7 ;
8 [label="mse = 0.0\nsamples = 1\nvalue = -65.922"] ;
6 -> 8 ;
9 [label="X[0] <= -1.394\nmse = 3.838\nsamples = 4\nvalue = -56.629"] ;
5 -> 9 ;
10 [label="X[0] <= -1.438\nmse = 0.067\nsamples = 2\nvalue = -57.949"] ;
9 -> 10 ;
11 [label="mse = 0.0\nsamples = 1\nvalue = -58.209"] ;
10 -> 11 ;
12 [label="mse = -0.0\nsamples = 1\nvalue = -57.69"] ;
10 -> 12 ;
13 [label="X[0] <= -1.332\nmse = 0.925\nsamples = 2\nvalue = -53.989"] ;
9 -> 13 ;
14 [label="mse = 0.0\nsamples = 1\nvalue = -54.669"] ;
13 -> 14 ;
15 [label="mse = 0.0\nsamples = 1\nvalue = -52.629"] ;
13 -> 15 ;
16 [label="X[0] <= -1.153\nmse = 3.546\nsamples = 4\nvalue = -45.435"] ;
4 -> 16 ;
17 [label="X[0] <= -1.194\nmse = 0.064\nsamples = 2\nvalue = -48.116"] ;
16 -> 17 ;
18 [label="mse = 0.0\nsamples = 1\nvalue = -48.368"] ;
17 -> 18 ;
19 [label="mse = -0.0\nsamples = 1\nvalue = -47.864"] ;
17 -> 19 ;
20 [label="X[0] <= -1.094\nmse = 0.913\nsamples = 2\nvalue = -44.362"] ;
16 -> 20 ;
21 [label="mse = 0.0\nsamples = 1\nvalue = -45.142"] ;
20 -> 21 ;
22 [label="mse = -0.0\nsamples = 1\nvalue = -43.192"] ;
20 -> 22 ;
23 [label="X[0] <= -0.651\nmse = 71.529\nsamples = 18\nvalue = -26.681"] ;
1 -> 23 ;
24 [label="X[0] <= -0.792\nmse = 10.726\nsamples = 8\nvalue = -33.183"] ;
23 -> 24 ;
25 [label="X[0] <= -0.915\nmse = 1.926\nsamples = 6\nvalue = -35.379"] ;
24 -> 25 ;
26 [label="mse = 0.0\nsamples = 1\nvalue = -37.804"] ;
25 -> 26 ;
27 [label="X[0] <= -0.852\nmse = 0.757\nsamples = 5\nvalue = -34.84"] ;
25 -> 27 ;
28 [label="X[0] <= -0.872\nmse = 0.203\nsamples = 3\nvalue = -35.383"] ;
27 -> 28 ;
29 [label="X[0] <= -0.886\nmse = 0.023\nsamples = 2\nvalue = -35.689"] ;
28 -> 29 ;
30 [label="mse = 0.0\nsamples = 1\nvalue = -35.842"] ;
29 -> 30 ;
31 [label="mse = -0.0\nsamples = 1\nvalue = -35.536"] ;
29 -> 31 ;
32 [label="mse = 0.0\nsamples = 1\nvalue = -34.771"] ;
28 -> 32 ;
33 [label="X[0] <= -0.835\nmse = 0.095\nsamples = 2\nvalue = -33.754"] ;
27 -> 33 ;
34 [label="mse = 0.0\nsamples = 1\nvalue = -33.972"] ;
33 -> 34 ;
35 [label="mse = -0.0\nsamples = 1\nvalue = -33.317"] ;
33 -> 35 ;
36 [label="X[0] <= -0.723\nmse = 1.812\nsamples = 2\nvalue = -29.157"] ;
24 -> 36 ;
37 [label="mse = 0.0\nsamples = 1\nvalue = -30.503"] ;
36 -> 37 ;
38 [label="mse = 0.0\nsamples = 1\nvalue = -27.811"] ;
36 -> 38 ;
39 [label="X[0] <= -0.382\nmse = 23.484\nsamples = 10\nvalue = -18.18"] ;
23 -> 39 ;
40 [label="X[0] <= -0.495\nmse = 5.819\nsamples = 7\nvalue = -21.068"] ;
39 -> 40 ;
41 [label="X[0] <= -0.565\nmse = 1.188\nsamples = 5\nvalue = -22.644"] ;
40 -> 41 ;
42 [label="X[0] <= -0.596\nmse = 0.53\nsamples = 2\nvalue = -24.018"] ;
41 -> 42 ;
43 [label="mse = 0.0\nsamples = 1\nvalue = -24.746"] ;
42 -> 43 ;
44 [label="mse = 0.0\nsamples = 1\nvalue = -23.29"] ;
42 -> 44 ;
45 [label="X[0] <= -0.541\nmse = 0.1\nsamples = 3\nvalue = -21.957"] ;
41 -> 45 ;
46 [label="X[0] <= -0.55\nmse = 0.001\nsamples = 2\nvalue = -22.139"] ;
45 -> 46 ;
47 [label="mse = 0.0\nsamples = 1\nvalue = -22.183"] ;
46 -> 47 ;
48 [label="mse = -0.0\nsamples = 1\nvalue = -22.117"] ;
46 -> 48 ;
49 [label="mse = -0.0\nsamples = 1\nvalue = -21.41"] ;
45 -> 49 ;
50 [label="X[0] <= -0.448\nmse = 0.18\nsamples = 2\nvalue = -17.916"] ;
40 -> 50 ;
51 [label="mse = 0.0\nsamples = 1\nvalue = -18.516"] ;
50 -> 51 ;
52 [label="mse = 0.0\nsamples = 1\nvalue = -17.616"] ;
50 -> 52 ;
53 [label="X[0] <= -0.289\nmse = 2.228\nsamples = 3\nvalue = -11.681"] ;
39 -> 53 ;
54 [label="mse = 0.0\nsamples = 1\nvalue = -13.174"] ;
53 -> 54 ;
55 [label="X[0] <= -0.252\nmse = 0.0\nsamples = 2\nvalue = -10.188"] ;
53 -> 55 ;
56 [label="mse = 0.0\nsamples = 1\nvalue = -10.176"] ;
55 -> 56 ;
57 [label="mse = 0.0\nsamples = 1\nvalue = -10.2"] ;
55 -> 57 ;
58 [label="X[0] <= 1.431\nmse = 596.298\nsamples = 28\nvalue = 25.494"] ;
0 -> 58 [labeldistance=2.5, labelangle=-45, headlabel="False"] ;
59 [label="X[0] <= 0.471\nmse = 233.108\nsamples = 25\nvalue = 18.022"] ;
58 -> 59 ;
60 [label="X[0] <= 0.165\nmse = 45.765\nsamples = 13\nvalue = 4.749"] ;
59 -> 60 ;
61 [label="X[0] <= -0.034\nmse = 8.244\nsamples = 7\nvalue = -0.686"] ;
60 -> 61 ;
62 [label="X[0] <= -0.092\nmse = 0.223\nsamples = 3\nvalue = -3.353"] ;
61 -> 62 ;
63 [label="mse = 0.0\nsamples = 1\nvalue = -4.286"] ;
62 -> 63 ;
64 [label="X[0] <= -0.078\nmse = 0.007\nsamples = 2\nvalue = -3.12"] ;
62 -> 64 ;
65 [label="mse = 0.0\nsamples = 1\nvalue = -3.204"] ;
64 -> 65 ;
66 [label="mse = -0.0\nsamples = 1\nvalue = -3.036"] ;
64 -> 66 ;
67 [label="X[0] <= 0.037\nmse = 2.037\nsamples = 4\nvalue = 1.982"] ;
61 -> 67 ;
68 [label="X[0] <= 0.013\nmse = 0.057\nsamples = 2\nvalue = 0.491"] ;
67 -> 68 ;
69 [label="mse = 0.0\nsamples = 1\nvalue = 0.253"] ;
68 -> 69 ;
70 [label="mse = 0.0\nsamples = 1\nvalue = 0.73"] ;
68 -> 70 ;
71 [label="X[0] <= 0.082\nmse = 0.889\nsamples = 2\nvalue = 2.975"] ;
67 -> 71 ;
72 [label="mse = 0.0\nsamples = 1\nvalue = 2.309"] ;
71 -> 72 ;
73 [label="mse = -0.0\nsamples = 1\nvalue = 4.308"] ;
71 -> 73 ;
74 [label="X[0] <= 0.299\nmse = 9.601\nsamples = 6\nvalue = 11.542"] ;
60 -> 74 ;
75 [label="X[0] <= 0.239\nmse = 0.303\nsamples = 3\nvalue = 9.278"] ;
74 -> 75 ;
76 [label="X[0] <= 0.222\nmse = 0.001\nsamples = 2\nvalue = 9.003"] ;
75 -> 76 ;
77 [label="mse = 0.0\nsamples = 1\nvalue = 8.942"] ;
76 -> 77 ;
78 [label="mse = -0.0\nsamples = 1\nvalue = 9.024"] ;
76 -> 78 ;
79 [label="mse = 0.0\nsamples = 1\nvalue = 10.377"] ;
75 -> 79 ;
80 [label="X[0] <= 0.397\nmse = 2.319\nsamples = 3\nvalue = 15.315"] ;
74 -> 80 ;
81 [label="X[0] <= 0.354\nmse = 0.361\nsamples = 2\nvalue = 14.296"] ;
80 -> 81 ;
82 [label="mse = 0.0\nsamples = 1\nvalue = 13.695"] ;
81 -> 82 ;
83 [label="mse = -0.0\nsamples = 1\nvalue = 14.897"] ;
81 -> 83 ;
84 [label="mse = 0.0\nsamples = 1\nvalue = 17.354"] ;
80 -> 84 ;
85 [label="X[0] <= 0.784\nmse = 47.417\nsamples = 12\nvalue = 32.076"] ;
59 -> 85 ;
86 [label="X[0] <= 0.65\nmse = 14.879\nsamples = 7\nvalue = 26.391"] ;
85 -> 86 ;
87 [label="X[0] <= 0.547\nmse = 2.909\nsamples = 3\nvalue = 22.363"] ;
86 -> 87 ;
88 [label="mse = 0.0\nsamples = 1\nvalue = 20.714"] ;
87 -> 88 ;
89 [label="X[0] <= 0.597\nmse = 0.38\nsamples = 2\nvalue = 24.012"] ;
87 -> 89 ;
90 [label="mse = 0.0\nsamples = 1\nvalue = 23.395"] ;
89 -> 90 ;
91 [label="mse = -0.0\nsamples = 1\nvalue = 24.628"] ;
89 -> 91 ;
92 [label="X[0] <= 0.712\nmse = 1.091\nsamples = 4\nvalue = 29.613"] ;
86 -> 92 ;
93 [label="mse = 0.0\nsamples = 1\nvalue = 27.56"] ;
92 -> 93 ;
94 [label="X[0] <= 0.743\nmse = 0.046\nsamples = 3\nvalue = 30.127"] ;
92 -> 94 ;
95 [label="mse = 0.0\nsamples = 1\nvalue = 29.758"] ;
94 -> 95 ;
96 [label="X[0] <= 0.75\nmse = 0.001\nsamples = 2\nvalue = 30.25"] ;
94 -> 96 ;
97 [label="mse = 0.0\nsamples = 1\nvalue = 30.227"] ;
96 -> 97 ;
98 [label="mse = -0.0\nsamples = 1\nvalue = 30.294"] ;
96 -> 98 ;
99 [label="X[0] <= 0.877\nmse = 6.757\nsamples = 5\nvalue = 38.472"] ;
85 -> 99 ;
100 [label="mse = 0.0\nsamples = 1\nvalue = 32.887"] ;
99 -> 100 ;
101 [label="X[0] <= 0.959\nmse = 2.631\nsamples = 4\nvalue = 39.269"] ;
99 -> 101 ;
102 [label="mse = 0.0\nsamples = 1\nvalue = 37.603"] ;
101 -> 102 ;
103 [label="X[0] <= 1.004\nmse = 0.96\nsamples = 3\nvalue = 40.519"] ;
101 -> 103 ;
104 [label="mse = 0.0\nsamples = 1\nvalue = 39.541"] ;
103 -> 104 ;
105 [label="X[0] <= 1.028\nmse = 0.006\nsamples = 2\nvalue = 41.497"] ;
103 -> 105 ;
106 [label="mse = 0.0\nsamples = 1\nvalue = 41.417"] ;
105 -> 106 ;
107 [label="mse = -0.0\nsamples = 1\nvalue = 41.577"] ;
105 -> 107 ;
108 [label="X[0] <= 1.956\nmse = 11.782\nsamples = 3\nvalue = 77.801"] ;
58 -> 108 ;
109 [label="X[0] <= 1.854\nmse = 0.707\nsamples = 2\nvalue = 75.049"] ;
108 -> 109 ;
110 [label="mse = 0.0\nsamples = 1\nvalue = 73.86"] ;
109 -> 110 ;
111 [label="mse = 0.0\nsamples = 1\nvalue = 75.644"] ;
109 -> 111 ;
112 [label="mse = -0.0\nsamples = 1\nvalue = 81.929"] ;
108 -> 112 ;
}